<?xml version="1.0"?>
<opencv_storage>
<cascade>
  <stageType>BOOST</stageType>
  <featureType>HAAR</featureType>
  <height>24</height>
  <width>24</width>
  <stageParams>
    <boostType>GAB</boostType>
    <minHitRate>9.9500000476837158e-01</minHitRate>
    <maxFalseAlarm>5.0000000000000000e-01</maxFalseAlarm>
    <weightTrimRate>9.4999998807907104e-01</weightTrimRate>
    <maxDepth>1</maxDepth>
    <maxWeakCount>100</maxWeakCount></stageParams>
  <featureParams>
    <maxCatCount>0</maxCatCount>
    <featSize>1</featSize>
    <mode>BASIC</mode></featureParams>
  <stageNum>3</stageNum>
  <stages>
    <!-- stage 0 -->
    <_>
      <maxWeakCount>1</maxWeakCount>
      <stageThreshold>1.</stageThreshold>
      <weakClassifiers>
        <_>
          <internalNodes>
            0 -1 2 -7.3658719658851624e-02</internalNodes>
          <leafValues>
            1. -1.</leafValues></_></weakClassifiers></_>
    <!-- stage 1 -->
    <_>
      <maxWeakCount>2</maxWeakCount>
      <stageThreshold>8.2514882087707520e-03</stageThreshold>
      <weakClassifiers>
        <_>
          <internalNodes>
            0 -1 0 2.7823613956570625e-02</internalNodes>
          <leafValues>
            -9.0196079015731812e-01 9.5488721132278442e-01</leafValues></_>
        <_>
          <internalNodes>
            0 -1 4 -1.1364574730396271e-01</internalNodes>
          <leafValues>
            9.1021227836608887e-01 -9.1676819324493408e-01</leafValues></_></weakClassifiers></_>
    <!-- stage 2 -->
    <_>
      <maxWeakCount>2</maxWeakCount>
      <stageThreshold>-2.5705273728817701e-03</stageThreshold>
      <weakClassifiers>
        <_>
          <internalNodes>
            0 -1 3 7.3043972253799438e-02</internalNodes>
          <leafValues>
            -7.6470589637756348e-01 8.4962403774261475e-01</leafValues></_>
        <_>
          <internalNodes>
            0 -1 1 5.9091096045449376e-04</internalNodes>
          <leafValues>
            -7.1223455667495728e-01 7.6213532686233521e-01</leafValues></_></weakClassifiers></_></stages>
  <features>
    <_>
      <rects>
        <_>
          0 7 16 3 -1.</_>
        <_>
          8 7 8 3 2.</_></rects>
      <tilted>0</tilted></_>
    <_>
      <rects>
        <_>
          0 10 4 13 -1.</_>
        <_>
          2 10 2 13 2.</_></rects>
      <tilted>0</tilted></_>
    <_>
      <rects>
        <_>
          0 10 17 14 -1.</_>
        <_>
          0 17 17 7 2.</_></rects>
      <tilted>0</tilted></_>
    <_>
      <rects>
        <_>
          1 5 16 6 -1.</_>
        <_>
          9 5 8 6 2.</_></rects>
      <tilted>0</tilted></_>
    <_>
      <rects>
        <_>
          4 10 13 14 -1.</_>
        <_>
          4 17 13 7 2.</_></rects>
      <tilted>0</tilted></_></features></cascade>
</opencv_storage>
